#include <math.h>
#include <stdio.h>

double func(double x, double y, double z) {
    return cos(2*x+2*y+2*z) + x*y + exp(-z*z) + cos(2*x+2*y+2*z) + x*y + exp(-z*z) + cos(2*x+2*y+2*z) + x*y + exp(-z*z) + cos(2*x+2*y+2*z) + x*y + exp(-z*z) + cos(2*x+2*y+2*z) + x*y + exp(-z*z);
    /* return 1; */
}

int main() {
    double points[100] = {-18.95963622, -18.13559153, -17.4555874 , -16.8504422 , -16.29374192, -15.77188154, -15.27670366, -14.80283558, -14.34650354, -13.90492931, -13.4759927 , -13.05802905, -12.6497008 , -12.24991246, -11.85775213, -11.47245017, -11.09334911, -10.71988137, -10.35155229,  -9.98792721, -9.62862121,  -9.27329112,  -8.92162899,  -8.57335694, -8.22822279,  -7.88599657,  -7.54646752,  -7.20944169, -6.87473974,  -6.54219527,  -6.21165317,  -5.88296841, -5.55600482,  -5.23063412,  -4.90673506,  -4.58419261, -4.26289729,  -3.94274457,  -3.62363432,  -3.3054703 , -2.98815971,  -2.67161281,  -2.35574252,  -2.04046406, -1.72569465,  -1.41135323,  -1.09736009,  -0.7836367 , -0.47010537,  -0.15668903,   0.15668903,   0.47010537, 0.7836367 ,   1.09736009,   1.41135323,   1.72569465, 2.04046406,   2.35574252,   2.67161281,   2.98815971, 3.3054703 ,   3.62363432,   3.94274457,   4.26289729, 4.58419261,   4.90673506,   5.23063412,   5.55600482, 5.88296841,   6.21165317,   6.54219527,   6.87473974, 7.20944169,   7.54646752,   7.88599657,   8.22822279, 8.57335694,   8.92162899,   9.27329112,   9.62862121, 9.98792721,  10.35155229,  10.71988137,  11.09334911, 11.47245017,  11.85775213,  12.24991246,  12.6497008 , 13.05802905,  13.4759927 ,  13.90492931,  14.34650354, 14.80283558,  15.27670366,  15.77188154,  16.29374192, 16.8504422 ,  17.4555874 ,  18.13559153,  18.95963622};
    double weights[100] = {8.35526970e-79, 2.79004618e-72, 4.36006141e-67, 1.27551065e-62, 1.20475200e-58, 4.89244062e-55, 1.01703585e-51, 1.21587915e-48, 9.08027667e-46, 4.50457832e-43, 1.55630056e-40, 3.88736886e-38, 7.23544554e-36, 1.02877992e-33, 1.14090750e-31, 1.00434792e-29, 7.12451259e-28, 4.12575604e-26, 1.97260380e-24, 7.86447975e-23, 2.63750501e-21, 7.49860746e-20, 1.81985657e-18, 3.79361680e-17, 6.83041862e-16, 1.06757523e-14, 1.45504889e-13, 1.73648245e-12, 1.82137106e-11, 1.68475351e-10, 1.37856424e-09, 1.00067733e-08, 6.46030788e-08, 3.71810532e-07, 1.91172988e-06, 8.79856478e-06, 3.63115728e-05, 1.34593007e-04, 4.48718609e-04, 1.34731021e-03, 3.64764323e-03, 8.91378849e-03, 1.96797225e-02, 3.92856187e-02, 7.09593148e-02, 1.16038807e-01, 1.71880669e-01, 2.30700702e-01, 2.80668854e-01, 3.09560925e-01, 3.09560925e-01, 2.80668854e-01, 2.30700702e-01, 1.71880669e-01, 1.16038807e-01, 7.09593148e-02, 3.92856187e-02, 1.96797225e-02, 8.91378849e-03, 3.64764323e-03, 1.34731021e-03, 4.48718609e-04, 1.34593007e-04, 3.63115728e-05, 8.79856478e-06, 1.91172988e-06, 3.71810532e-07, 6.46030788e-08, 1.00067733e-08, 1.37856424e-09, 1.68475351e-10, 1.82137106e-11, 1.73648245e-12, 1.45504889e-13, 1.06757523e-14, 6.83041862e-16, 3.79361680e-17, 1.81985657e-18, 7.49860746e-20, 2.63750501e-21, 7.86447975e-23, 1.97260380e-24, 4.12575604e-26, 7.12451259e-28, 1.00434792e-29, 1.14090750e-31, 1.02877992e-33, 7.23544554e-36, 3.88736886e-38, 1.55630056e-40, 4.50457832e-43, 9.08027667e-46, 1.21587915e-48, 1.01703585e-51, 4.89244062e-55, 1.20475200e-58, 1.27551065e-62, 4.36006141e-67, 2.79004618e-72, 8.35526970e-79};
    int i,j,k,m;
    double result = 0;
    for (m = 0; m < 100; ++m) {
        for (i = 0; i < 100; ++i) {
            for (j = 0; j < 100; ++j) {
                for (k = 0; k < 100; ++k) {
                    double f_point = func(points[i], points[j], points[k]);
                    double w_point = weights[i] * weights[j] * weights[k];
                    result += f_point * w_point;
                }
            } 
        }
    } 
    printf("Result: %f\n", result);
}
